{
   "accuracy": 0.11257349422019682,
   "layers": [
      7,
      7,
      3,
      2,
      1
   ],
   "weights": {
      "0": [
         [
            0.061432020857179546,
            -0.4432297044198312,
            -1.253674334769091,
            -1.1277660930230744,
            0.4269564594813652,
            0.5821074055798748,
            0.5656129742684881
         ],
         [
            0.06756555009602787,
            -1.7924765298370382,
            -1.2176557761817868,
            0.5061177114557541,
            -1.6832490252025738,
            0.02220500090067642,
            0.6685328404560282
         ],
         [
            0.9310652830484216,
            -0.3037355825688809,
            0.8583804174260443,
            -0.1043130652534962,
            -2.621110087952491,
            0.03368853813597409,
            -0.575411312996554
         ],
         [
            -0.7169372011841579,
            -0.018053968885841824,
            0.5920250595216083,
            1.3990904450440411,
            0.9933262368457523,
            -0.46724581795455433,
            -0.7523109169404001
         ],
         [
            0.4288827309850754,
            -0.2610116230285814,
            0.15472820876580232,
            1.3520945704457343,
            -1.0768558309839453,
            0.12890029163720795,
            -0.9309751055251207
         ],
         [
            0.6049082565346359,
            -0.6002626200874952,
            -0.8971050611477319,
            -1.3525818759494306,
            1.1934170501586991,
            1.2427281713340796,
            -0.6713827752747858
         ],
         [
            0.138997087778135,
            0.49265237025611414,
            -0.2058503081309084,
            0.09885265883212653,
            -1.7242572700035912,
            0.4579297287678559,
            0.5124153348737687
         ]
      ],
      "1": [
         [
            -0.870141780461867,
            -1.0941136478640785,
            -1.498745946225506,
            -0.11070241855095939,
            -1.5101413027290653,
            1.06665224538896,
            -1.4620134935826277
         ],
         [
            1.3105889558040031,
            -0.7833097370308988,
            0.8369449612007872,
            -0.282294844689713,
            1.0847688581083634,
            0.37166817367629656,
            1.5231393855444748
         ],
         [
            -1.7710420209657052,
            0.31345466672305244,
            1.2774575154515333,
            -1.5669060753006356,
            0.5915128713771697,
            2.1314969761752565,
            1.3022582106278808
         ]
      ],
      "2": [
         [
            -0.8259269541788039,
            -0.1028013776012677,
            -1.0380276662472354
         ],
         [
            -1.1337030700096016,
            0.17544774236358512,
            -1.0066885302450044
         ]
      ],
      "3": [
         [
            -0.1374640985796637,
            -1.5464840806080287
         ]
      ]
   },
   "baises": {
      "0": [
         [
            0.5259952999611334
         ],
         [
            0.3830726821481991
         ],
         [
            0.3094698110870544
         ],
         [
            0.7704679834120984
         ],
         [
            0.8880155841524731
         ],
         [
            0.7611194433494666
         ],
         [
            0.9774770641947677
         ]
      ],
      "1": [
         [
            0.704333143368662
         ],
         [
            0.48314363032790314
         ],
         [
            0.5791379702963982
         ]
      ],
      "2": [
         [
            -0.010394069715163982
         ],
         [
            -0.42978897033673397
         ]
      ],
      "3": [
         [
            1.9488163552604245
         ]
      ]
   }
}